digraph Tree {
node [shape=box, style="rounded", color="black", fontname=helvetica] ;
edge [fontname=helvetica] ;
0 [label="bedrooms <= 1.5\nmse = 142489.0\nsamples = 3714\nvalue = 796.3"] ;
1 [label="Entire home/apt <= 0.5\nmse = 95480.2\nsamples = 2468\nvalue = 671.0"] ;
0 -> 1 [labeldistance=2.5, labelangle=45, headlabel="True"] ;
2 [label="availability_365 <= 362.5\nmse = 46510.1\nsamples = 707\nvalue = 478.0"] ;
1 -> 2 ;
3 [label="cleaning_fee <= 725.0\nmse = 36710.3\nsamples = 659\nvalue = 461.4"] ;
2 -> 3 ;
4 [label="Majorstuen <= 0.5\nmse = 33945.1\nsamples = 654\nvalue = 458.1"] ;
3 -> 4 ;
5 [label="mse = 30675.4\nsamples = 605\nvalue = 449.5"] ;
4 -> 5 ;
6 [label="mse = 61251.8\nsamples = 49\nvalue = 558.1"] ;
4 -> 6 ;
7 [label="availability_365 <= 86.0\nmse = 188994.0\nsamples = 5\nvalue = 1021.0"] ;
3 -> 7 ;
8 [label="mse = 2357.6\nsamples = 2\nvalue = 1434.3"] ;
7 -> 8 ;
9 [label="mse = 33941.6\nsamples = 3\nvalue = 607.7"] ;
7 -> 9 ;
10 [label="security_deposit <= 14759.5\nmse = 123399.5\nsamples = 48\nvalue = 692.6"] ;
2 -> 10 ;
11 [label="cleaning_fee <= 475.0\nmse = 84340.6\nsamples = 47\nvalue = 659.9"] ;
10 -> 11 ;
12 [label="mse = 58132.3\nsamples = 45\nvalue = 623.3"] ;
11 -> 12 ;
13 [label="mse = 91875.0\nsamples = 2\nvalue = 1328.0"] ;
11 -> 13 ;
14 [label="mse = 0.0\nsamples = 1\nvalue = 1952.0"] ;
10 -> 14 ;
15 [label="Sentrum <= 0.5\nmse = 94224.5\nsamples = 1761\nvalue = 748.0"] ;
1 -> 15 ;
16 [label="beds <= 1.5\nmse = 86768.6\nsamples = 1685\nvalue = 733.7"] ;
15 -> 16 ;
17 [label="availability_365 <= 83.5\nmse = 54663.6\nsamples = 1073\nvalue = 689.9"] ;
16 -> 17 ;
18 [label="mse = 46983.4\nsamples = 852\nvalue = 667.3"] ;
17 -> 18 ;
19 [label="mse = 74630.7\nsamples = 221\nvalue = 777.2"] ;
17 -> 19 ;
20 [label="number_of_reviews <= 0.5\nmse = 134834.8\nsamples = 612\nvalue = 812.5"] ;
16 -> 20 ;
21 [label="mse = 255633.1\nsamples = 135\nvalue = 1006.9"] ;
20 -> 21 ;
22 [label="mse = 88244.9\nsamples = 477\nvalue = 758.9"] ;
20 -> 22 ;
23 [label="cleaning_fee <= 745.0\nmse = 153835.1\nsamples = 76\nvalue = 1072.8"] ;
15 -> 23 ;
24 [label="number_of_reviews <= 3.5\nmse = 127803.5\nsamples = 74\nvalue = 1039.8"] ;
23 -> 24 ;
25 [label="mse = 185907.8\nsamples = 27\nvalue = 1243.0"] ;
24 -> 25 ;
26 [label="mse = 46228.7\nsamples = 47\nvalue = 908.4"] ;
24 -> 26 ;
27 [label="mse = 0.0\nsamples = 2\nvalue = 1996.0"] ;
23 -> 27 ;
28 [label="accommodates <= 5.5\nmse = 144557.6\nsamples = 1246\nvalue = 1037.7"] ;
0 -> 28 [labeldistance=2.5, labelangle=-45, headlabel="False"] ;
29 [label="availability_365 <= 81.5\nmse = 122382.3\nsamples = 952\nvalue = 971.2"] ;
28 -> 29 ;
30 [label="bathrooms <= 1.8\nmse = 103070.1\nsamples = 721\nvalue = 921.8"] ;
29 -> 30 ;
31 [label="Private room <= 0.5\nmse = 93941.2\nsamples = 672\nvalue = 902.4"] ;
30 -> 31 ;
32 [label="mse = 92187.1\nsamples = 651\nvalue = 914.3"] ;
31 -> 32 ;
33 [label="mse = 37707.5\nsamples = 21\nvalue = 588.2"] ;
31 -> 33 ;
34 [label="Sentrum <= 0.5\nmse = 152720.8\nsamples = 49\nvalue = 1186.8"] ;
30 -> 34 ;
35 [label="mse = 129811.6\nsamples = 46\nvalue = 1141.3"] ;
34 -> 35 ;
36 [label="mse = 16341.8\nsamples = 3\nvalue = 1850.6"] ;
34 -> 36 ;
37 [label="availability_365 <= 361.0\nmse = 150875.7\nsamples = 231\nvalue = 1116.0"] ;
29 -> 37 ;
38 [label="guests_included <= 3.5\nmse = 137803.9\nsamples = 197\nvalue = 1074.7"] ;
37 -> 38 ;
39 [label="mse = 122838.1\nsamples = 169\nvalue = 1032.0"] ;
38 -> 39 ;
40 [label="mse = 153855.5\nsamples = 28\nvalue = 1316.6"] ;
38 -> 40 ;
41 [label="Private room <= 0.5\nmse = 164507.9\nsamples = 34\nvalue = 1326.8"] ;
37 -> 41 ;
42 [label="mse = 146203.4\nsamples = 31\nvalue = 1373.9"] ;
41 -> 42 ;
43 [label="mse = 44929.4\nsamples = 3\nvalue = 770.6"] ;
41 -> 43 ;
44 [label="bathrooms <= 1.8\nmse = 154957.3\nsamples = 294\nvalue = 1257.4"] ;
28 -> 44 ;
45 [label="Majorstuen <= 0.5\nmse = 146175.7\nsamples = 201\nvalue = 1201.4"] ;
44 -> 45 ;
46 [label="bedrooms <= 4.5\nmse = 141651.6\nsamples = 185\nvalue = 1176.9"] ;
45 -> 46 ;
47 [label="mse = 134994.2\nsamples = 182\nvalue = 1166.3"] ;
46 -> 47 ;
48 [label="mse = 484.0\nsamples = 3\nvalue = 1974.0"] ;
46 -> 48 ;
49 [label="number_of_reviews <= 16.5\nmse = 113577.8\nsamples = 16\nvalue = 1479.0"] ;
45 -> 49 ;
50 [label="mse = 99776.4\nsamples = 11\nvalue = 1644.0"] ;
49 -> 50 ;
51 [label="mse = 12077.4\nsamples = 5\nvalue = 1198.5"] ;
49 -> 51 ;
52 [label="availability_365 <= 192.0\nmse = 149217.4\nsamples = 93\nvalue = 1398.7"] ;
44 -> 52 ;
53 [label="number_of_reviews <= 29.5\nmse = 142622.6\nsamples = 81\nvalue = 1351.1"] ;
52 -> 53 ;
54 [label="mse = 135585.0\nsamples = 75\nvalue = 1324.8"] ;
53 -> 54 ;
55 [label="mse = 31149.6\nsamples = 6\nvalue = 1827.3"] ;
53 -> 55 ;
56 [label="availability_365 <= 340.5\nmse = 74410.4\nsamples = 12\nvalue = 1721.3"] ;
52 -> 56 ;
57 [label="mse = 29803.1\nsamples = 9\nvalue = 1828.3"] ;
56 -> 57 ;
58 [label="mse = 61204.8\nsamples = 3\nvalue = 1373.5"] ;
56 -> 58 ;
}